digraph Tree {
node [shape=box] ;
0 [label="Pressure <= 1028.5\ngini = 0.599\nsamples = 22\nvalue = [8, 11, 3]\nclass = 1"] ;
1 [label="Latitude <= 57.785\ngini = 0.549\nsamples = 18\nvalue = [4, 11, 3]\nclass = 1"] ;
0 -> 1 [labeldistance=2.5, labelangle=45, headlabel="True"] ;
2 [label="Humidity <= 86.75\ngini = 0.461\nsamples = 16\nvalue = [4, 11, 1]\nclass = 1"] ;
1 -> 2 ;
3 [label="Humidity <= 77.2\ngini = 0.49\nsamples = 7\nvalue = [4, 3, 0]\nclass = 0"] ;
2 -> 3 ;
4 [label="gini = 0.0\nsamples = 3\nvalue = [0, 3, 0]\nclass = 1"] ;
3 -> 4 ;
5 [label="gini = 0.0\nsamples = 4\nvalue = [4, 0, 0]\nclass = 0"] ;
3 -> 5 ;
6 [label="Latitude <= 49.676\ngini = 0.198\nsamples = 9\nvalue = [0, 8, 1]\nclass = 1"] ;
2 -> 6 ;
7 [label="gini = 0.0\nsamples = 1\nvalue = [0, 0, 1]\nclass = 2"] ;
6 -> 7 ;
8 [label="gini = 0.0\nsamples = 8\nvalue = [0, 8, 0]\nclass = 1"] ;
6 -> 8 ;
9 [label="gini = 0.0\nsamples = 2\nvalue = [0, 0, 2]\nclass = 2"] ;
1 -> 9 ;
10 [label="gini = 0.0\nsamples = 4\nvalue = [4, 0, 0]\nclass = 0"] ;
0 -> 10 [labeldistance=2.5, labelangle=-45, headlabel="False"] ;
}